digraph Tree {
node [shape=box] ;
0 [label="PLANNEDTIME_TOTAL <= 5101.0\ngini = 0.988\nsamples = 88\nvalue = [1, 1, 1, 1, 1, 1, 1, 1, 1, 1, 1, 1, 1, 1\n1, 1, 1, 1, 1, 1, 1, 1, 1, 1, 1, 1, 1, 1\n1, 1, 1, 1, 1, 1, 1, 1, 1, 1, 1, 1, 1, 1\n1, 1, 1, 1, 1, 1, 1, 1, 1, 1, 2, 1, 1, 1\n1, 1, 1, 1, 1, 1, 1, 1, 1, 1, 1, 1, 1, 1\n1, 1, 1, 1, 1, 1, 1, 1, 1, 1, 1, 1, 1, 1\n1, 1, 1]"] ;
1 [label="rush_hour <= 0.5\ngini = 0.985\nsamples = 67\nvalue = [1, 1, 1, 1, 1, 1, 1, 1, 1, 1, 1, 1, 1, 1\n1, 1, 1, 1, 1, 1, 1, 1, 1, 1, 1, 1, 1, 1\n0, 1, 1, 0, 1, 1, 1, 1, 1, 1, 1, 1, 1, 1\n1, 1, 1, 1, 1, 1, 1, 1, 1, 1, 0, 0, 1, 1\n1, 0, 1, 1, 1, 1, 0, 0, 0, 1, 1, 1, 1, 1\n0, 0, 0, 0, 0, 0, 0, 0, 1, 1, 0, 1, 1, 1\n0, 0, 0]"] ;
0 -> 1 [labeldistance=2.5, labelangle=45, headlabel="True"] ;
2 [label="gini = 0.984\nsamples = 64\nvalue = [1, 1, 1, 1, 1, 1, 1, 1, 1, 1, 1, 1, 1, 1\n1, 1, 1, 1, 1, 1, 1, 1, 1, 1, 1, 1, 1, 0\n0, 1, 1, 0, 1, 1, 1, 1, 1, 1, 1, 1, 1, 0\n1, 1, 1, 1, 1, 1, 0, 1, 1, 1, 0, 0, 1, 1\n1, 0, 1, 1, 1, 1, 0, 0, 0, 1, 1, 1, 1, 1\n0, 0, 0, 0, 0, 0, 0, 0, 1, 1, 0, 1, 1, 1\n0, 0, 0]"] ;
1 -> 2 ;
3 [label="gini = 0.667\nsamples = 3\nvalue = [0, 0, 0, 0, 0, 0, 0, 0, 0, 0, 0, 0, 0, 0\n0, 0, 0, 0, 0, 0, 0, 0, 0, 0, 0, 0, 0, 1\n0, 0, 0, 0, 0, 0, 0, 0, 0, 0, 0, 0, 0, 1\n0, 0, 0, 0, 0, 0, 1, 0, 0, 0, 0, 0, 0, 0\n0, 0, 0, 0, 0, 0, 0, 0, 0, 0, 0, 0, 0, 0\n0, 0, 0, 0, 0, 0, 0, 0, 0, 0, 0, 0, 0, 0\n0, 0, 0]"] ;
1 -> 3 ;
4 [label="hours <= 8.5\ngini = 0.948\nsamples = 21\nvalue = [0, 0, 0, 0, 0, 0, 0, 0, 0, 0, 0, 0, 0, 0\n0, 0, 0, 0, 0, 0, 0, 0, 0, 0, 0, 0, 0, 0\n1, 0, 0, 1, 0, 0, 0, 0, 0, 0, 0, 0, 0, 0\n0, 0, 0, 0, 0, 0, 0, 0, 0, 0, 2, 1, 0, 0\n0, 1, 0, 0, 0, 0, 1, 1, 1, 0, 0, 0, 0, 0\n1, 1, 1, 1, 1, 1, 1, 1, 0, 0, 1, 0, 0, 0\n1, 1, 1]"] ;
0 -> 4 [labeldistance=2.5, labelangle=-45, headlabel="False"] ;
5 [label="gini = 0.864\nsamples = 9\nvalue = [0, 0, 0, 0, 0, 0, 0, 0, 0, 0, 0, 0, 0, 0\n0, 0, 0, 0, 0, 0, 0, 0, 0, 0, 0, 0, 0, 0\n0, 0, 0, 1, 0, 0, 0, 0, 0, 0, 0, 0, 0, 0\n0, 0, 0, 0, 0, 0, 0, 0, 0, 0, 2, 1, 0, 0\n0, 0, 0, 0, 0, 0, 0, 0, 0, 0, 0, 0, 0, 0\n0, 1, 1, 1, 0, 1, 0, 0, 0, 0, 1, 0, 0, 0\n0, 0, 0]"] ;
4 -> 5 ;
6 [label="gini = 0.917\nsamples = 12\nvalue = [0, 0, 0, 0, 0, 0, 0, 0, 0, 0, 0, 0, 0, 0\n0, 0, 0, 0, 0, 0, 0, 0, 0, 0, 0, 0, 0, 0\n1, 0, 0, 0, 0, 0, 0, 0, 0, 0, 0, 0, 0, 0\n0, 0, 0, 0, 0, 0, 0, 0, 0, 0, 0, 0, 0, 0\n0, 1, 0, 0, 0, 0, 1, 1, 1, 0, 0, 0, 0, 0\n1, 0, 0, 0, 1, 0, 1, 1, 0, 0, 0, 0, 0, 0\n1, 1, 1]"] ;
4 -> 6 ;
}